#ifndef WEIGHTS_BIAS_H
#define WEIGHTS_BIAS_H
float weights_map_1[4][1][3][3] = {
    {{{0.819321, 0.655457, 0.382350},
      {0.710078, 0.710078, 0.000000},
      {0.218486, 0.163864, 0.327728}}},
    {{{0.546214, 0.382350, 0.382350},
      {0.382350, 0.109243, 0.327728},
      {-0.163864, -0.273107, 0.109243}}},
    {{{0.218486, 0.436971, 0.327728},
      {0.491593, 0.655457, 0.764700},
      {0.764700, 0.819321, 0.655457}}},
    {{{-0.109243, -0.491593, -0.764700},
      {0.273107, 0.163864, 0.546214},
      {0.600836, 0.436971, 0.710078}}}};
float bias_1[4] = {
    -0.000000,
    -0.873943,
    -0.436971,
    -0.054621};
float weights_map_2[8][4][3][3] = {
    {{{0.163864, 0.218486, -0.000000},
      {-0.436971, 0.163864, -0.000000},
      {0.054621, -0.710078, 0.382350}},
     {{-0.382350, 0.327728, 0.327728},
      {-0.655457, 0.327728, 0.491593},
      {-0.382350, -0.600836, -0.109243}},
     {{0.436971, 0.327728, 0.054621},
      {-0.600836, -0.109243, 0.327728},
      {-0.163864, -0.109243, 0.000000}},
     {{0.054621, 0.382350, 0.491593},
      {-0.273107, -0.273107, 0.054621},
      {0.054621, -0.382350, -0.163864}}},
    {{{0.054621, 0.382350, -0.054621},
      {0.000000, 0.327728, -0.382350},
      {0.163864, 0.000000, -0.600836}},
     {{-0.600836, -0.218486, -0.546214},
      {-0.109243, -0.273107, -0.163864},
      {-0.163864, 0.327728, 0.000000}},
     {{-0.000000, 0.273107, -0.273107},
      {0.218486, 0.710078, -0.382350},
      {0.436971, 0.218486, -0.764700}},
     {{-0.218486, -0.436971, -0.163864},
      {-0.327728, -0.382350, -0.109243},
      {-0.000000, -0.273107, 0.819321}}},
    {{{-0.382350, -0.710078, -0.655457},
      {0.436971, 0.218486, 0.382350},
      {-0.054621, 0.273107, -0.054621}},
     {{0.218486, -0.327728, -0.218486},
      {0.163864, 0.109243, 0.327728},
      {-0.109243, 0.327728, 0.218486}},
     {{-0.382350, -0.109243, -0.491593},
      {0.382350, 0.327728, 0.436971},
      {-0.327728, -0.327728, -0.109243}},
     {{0.600836, 0.436971, -0.546214},
      {0.764700, 0.436971, 0.327728},
      {-0.491593, -0.436971, 0.163864}}},
    {{{0.710078, 0.109243, 0.327728},
      {-0.054621, -0.273107, -0.273107},
      {-0.655457, -0.054621, -0.436971}},
     {{0.436971, 0.710078, 0.382350},
      {0.109243, -0.054621, -0.327728},
      {-0.109243, 0.546214, -0.546214}},
     {{0.546214, -0.109243, 0.054621},
      {-0.218486, 0.273107, -0.327728},
      {-0.218486, -0.054621, -0.273107}},
     {{-0.273107, -0.273107, 0.000000},
      {-0.163864, -0.273107, -0.382350},
      {-0.382350, 0.546214, -0.382350}}},
    {{{-0.109243, -0.436971, -0.546214},
      {0.546214, 0.600836, 0.436971},
      {-0.436971, -0.382350, -0.000000}},
     {{0.054621, -0.273107, 0.109243},
      {-0.218486, 0.218486, 0.109243},
      {0.436971, 0.163864, 0.436971}},
     {{-0.000000, 0.000000, -0.218486},
      {0.218486, 0.382350, 0.109243},
      {-0.600836, -0.491593, -0.163864}},
     {{0.436971, 0.491593, 0.382350},
      {0.218486, 0.546214, 0.273107},
      {-0.600836, 0.109243, -0.273107}}},
    {{{-0.218486, -0.163864, -0.327728},
      {-0.327728, 0.218486, -0.382350},
      {0.382350, 0.054621, 0.273107}},
     {{0.054621, -0.218486, 0.382350},
      {-0.436971, -0.054621, -0.109243},
      {0.710078, 0.163864, 0.163864}},
     {{-0.327728, -0.710078, -0.546214},
      {-0.163864, 0.054621, -0.109243},
      {0.382350, 0.218486, 0.109243}},
     {{-0.491593, -0.327728, -0.436971},
      {0.109243, 0.218486, 0.764700},
      {0.491593, 0.163864, 0.218486}}},
    {{{-0.000000, 0.109243, -0.054621},
      {0.491593, 0.273107, -0.546214},
      {0.436971, -0.109243, -0.273107}},
     {{-0.491593, -0.218486, -0.436971},
      {0.054621, -0.327728, 0.436971},
      {0.218486, -0.054621, 0.273107}},
     {{0.382350, 0.327728, -0.546214},
      {0.163864, -0.273107, -0.382350},
      {0.327728, -0.109243, -0.436971}},
     {{-0.054621, -0.218486, -0.218486},
      {-0.327728, -0.054621, 0.218486},
      {-0.000000, 0.491593, -0.163864}}},
    {{{-0.491593, 0.218486, 0.273107},
      {0.054621, 0.491593, -0.218486},
      {0.000000, -0.546214, -0.382350}},
     {{-0.054621, 0.109243, -0.000000},
      {0.546214, 0.764700, -0.600836},
      {0.218486, -0.382350, -0.600836}},
     {{0.327728, 0.436971, -0.109243},
      {0.546214, 0.327728, -0.491593},
      {-0.218486, -0.710078, -0.382350}},
     {{-0.327728, -0.054621, -0.218486},
      {0.109243, -0.436971, -0.218486},
      {-0.054621, 0.218486, 0.054621}}}};
float bias_2[8] = {-0.600836, -0.491593, -0.163864, 0.163864,
                   -0.218486, -0.054621, -0.382350, -0.382350};

#endif